34 128
28 0.499182 0.0152745 -0.221785 0.581138 0.33177 -0.372667 -0.116563 0.749395 0.21804 -0.172857 -0.210403 0.474431 0.20166 0.208002 0.0171236 0.627874 -0.483845 0.387613 0.430358 -0.495015 0.583261 1.00174 -0.335679 -0.297883 0.392803 0.393737 0.15866 0.0491337 -0.333709 -0.0403645 0.114582 -0.322737 -0.0890505 -0.109976 -0.0655201 -0.0288323 -0.279948 0.226434 -0.10907 0.449971 0.25232 -0.164702 0.0859623 -0.132018 0.112791 -0.0236331 0.115512 -0.247061 0.000761979 0.0414843 -0.0115501 0.170544 0.122912 0.0783471 -0.0321003 0.0760922 0.00988727 0.00714031 0.0106539 0.075385 -0.100223 0.0551183 0.03539 -0.046626 -0.0514794 0.0331577 -0.0613292 -0.0841993 0.0992685 -0.0402414 0.0121433 -0.123258 0.00682487 -0.0609441 0.166509 -0.0408558 0.0642671 0.0264957 -0.0146469 -0.0598263 -0.118809 -0.0673021 0.0265719 -0.0718961 -0.0974489 0.098455 -0.0273014 -0.126732 0.0610582 -0.0128716 0.0231536 0.0512661 -0.0169888 -0.0268704 0.00512067 -0.0410291 -0.07012 0.0157894 0.0948738 0.0615161 -0.0817781 -0.052312 -0.0277068 -0.0798964 0.0699988 0.034699 -0.0123072 -0.0870664 0.0966937 0.141411 -0.11354 0.0162607 -0.0749915 -0.16288 -0.0989367 -0.149491 -0.0456764 -0.125887 0.0188568 -0.0344127 0.0447294 -0.0356626 -0.0392972 -0.0780144 -0.0899079 -0.206262 -0.154917 -0.202078
24 0.345369 -0.0289887 -0.136914 0.464951 0.302282 -0.253636 -0.202508 0.495768 0.270611 -0.218365 -0.412559 0.798729 0.274593 0.182568 -0.0432393 0.727815 -0.678135 0.454789 0.526088 -0.492111 0.603963 1.01681 -0.354033 -0.300747 0.267284 0.252362 0.14302 0.080434 -0.407746 -0.0290809 0.0643967 -0.454805 -0.122261 -0.104315 0.0629924 0.0237641 -0.39256 0.229415 -0.187716 0.436386 0.14969 -0.191773 0.121599 -0.131937 0.123755 -0.125134 0.0478551 -0.237047 -0.0370565 0.0386222 0.0202199 0.180383 0.100727 0.073998 -0.0047449 0.0904447 0.0620509 -0.118163 -0.00674946 -0.0640388 -0.05521 0.0741069 0.0505426 -0.0495845 0.0273029 0.0102805 -0.0253503 -0.0939301 0.0663602 -0.0885802 0.0342066 -0.14761 0.0320285 -0.0451546 0.105115 0.00442454 0.0978995 -0.0102723 0.0350536 0.0723289 -0.0779929 -0.12219 0.0444073 -0.125641 -0.140497 0.00846783 -0.0354364 -0.15932 -0.083423 0.005784 0.0262175 -0.0411208 0.258475 0.097571 -0.0847078 0.245548 0.0121925 -0.103712 0.0809616 0.166739 -0.0604626 -0.111398 0.0457712 -0.0907289 0.0713738 -0.0391767 0.00532678 0.00355786 -0.00741299 0.00956634 0.00582521 -0.0406668 -0.0508536 -0.0437922 0.090461 -0.0400295 0.0770656 -0.00282896 -0.00695154 -0.00884076 -0.0166078 -0.0419219 0.0112651 -0.0442768 -0.0393805 -0.0680426 0.0266481 -0.0557055
26 0.197879 0.0995645 -0.140188 0.37686 0.349081 -0.229251 -0.00784423 0.431039 0.186959 -0.225335 -0.169162 0.5186 0.173502 0.181016 0.0551213 0.551703 -0.599099 0.441547 0.526239 -0.509001 0.620287 1.17377 -0.341538 -0.397668 0.449934 0.395377 0.218747 0.0735708 -0.38267 -0.0928519 0.13154 -0.352184 -0.112073 -0.15146 -0.0216754 -0.0182587 -0.366293 0.317488 -0.140944 0.345207 0.105254 -0.162678 0.142298 -0.132812 0.126857 -0.0911678 0.041488 -0.103584 -0.00294878 0.0229527 -0.0244549 0.0621164 -0.0489941 -0.0617087 -0.0232487 0.038552 0.0458741 -0.0500443 0.0599195 0.161668 -0.0772379 0.0780427 0.0914296 -0.0264247 0.0410405 0.0921288 -0.0425348 -0.157398 0.0679291 -0.0510798 0.0482775 -0.147448 0.0779865 -0.0253111 0.152812 0.0202869 0.0215593 -0.0255582 -0.042017 -0.024031 -0.0551996 -0.114696 0.0183024 -0.168538 -0.148779 0.0301411 -0.0473624 -0.222289 0.0879744 -0.0308043 0.120812 0.00857897 0.103537 -0.00300135 0.00756441 -0.0351022 -0.0718713 0.0670506 0.0116876 0.0289752 -0.126847 -0.0413648 -0.0071127 -0.0888001 0.0925235 0.0604087 0.0343396 -0.0118367 0.00397919 0.0805878 -0.0210161 -0.0274637 -0.044697 -0.0619371 -0.00844893 -0.157144 -0.00846245 0.0146074 0.0206144 -0.0151014 0.0847165 -0.0284245 -0.034762 -0.0691027 -0.0577606 -0.253338 -0.112788 -0.194828
25 0.162855 0.0695489 -0.140593 0.405797 0.315029 -0.157275 -0.0418015 0.350599 0.198746 -0.266475 -0.244237 0.574869 0.196995 0.15886 -0.00746534 0.577539 -0.676882 0.49927 0.550158 -0.541684 0.621469 1.2289 -0.396448 -0.455067 0.448667 0.33301 0.252027 0.0992922 -0.395926 -0.0896628 0.051271 -0.425882 -0.170289 -0.141856 -0.0262877 0.0196262 -0.465033 0.364118 -0.173786 0.502196 0.164507 -0.202344 0.179504 -0.186462 0.131631 -0.131691 -0.00559222 -0.151286 -0.0608541 0.0481398 -0.0128206 0.0599208 -0.043806 -0.088901 0.0119876 0.0201097 0.0887886 -0.0863 0.111719 0.158676 0.00607744 0.116004 0.100322 0.078447 0.0190562 0.0777737 -0.014407 -0.179733 0.0107445 -0.0755623 0.0618712 -0.118376 0.108479 -0.0237396 0.172366 0.0330874 0.0506814 -0.0118094 0.0414831 0.0242867 -0.0927674 -0.171088 -0.0236736 -0.156664 -0.121874 -0.0111778 -0.0590207 -0.235242 -0.0336945 0.0379223 0.11425 -0.0410127 0.178207 0.0534301 -0.070077 0.0507951 -0.020245 -0.0191337 0.0429711 0.0864424 -0.0846971 -0.0601206 0.0218873 -0.0692337 0.0909687 0.0438692 0.0118551 -0.0181428 -0.00377402 0.0545013 0.0260611 -0.0329314 -0.0518571 -0.0641788 0.076843 -0.106184 0.0627813 0.0149212 -0.0371967 -0.0570242 0.0232325 -0.0705491 -0.0148842 -0.0419737 -0.123775 -0.261576 -0.0919903 -0.226351
32 0.369339 0.0387256 -0.156907 0.429937 0.291347 -0.306562 -0.123386 0.547854 0.241926 -0.23138 -0.279473 0.694787 0.25291 0.219709 0.00202403 0.652743 -0.604552 0.425958 0.451185 -0.474819 0.61313 1.00636 -0.326557 -0.319971 0.340438 0.334821 0.137066 0.0767521 -0.418106 -0.0537599 0.118573 -0.361208 -0.0957021 -0.101489 0.0268474 0.00279525 -0.383443 0.224659 -0.154787 0.336798 0.156624 -0.210606 0.146972 -0.144383 0.145525 -0.108463 0.0776963 -0.248713 -0.00145743 0.0280155 -0.0054928 0.219722 0.123379 0.054977 -0.0346901 0.10808 0.0457064 -0.118534 -0.024822 -0.0218896 -0.135393 0.0820342 0.0678828 -0.121902 0.0655429 0.0458916 -0.0409273 -0.119211 0.148229 -0.08623 0.0272352 -0.212241 0.0299601 -0.113664 0.293382 -0.0361759 0.156426 0.0243889 -0.0196324 0.00789796 -0.157974 -0.151892 0.0753455 -0.22072 -0.223377 0.0666944 -0.0708549 -0.248187 -0.0442469 -0.0400335 0.0436884 -0.0177069 0.241903 0.0544472 -0.0397606 0.172645 -0.0312992 -0.0541976 0.0803242 0.143892 -0.11059 -0.11458 0.0213033 -0.121321 0.14757 -0.0151331 -0.00684045 -0.0379942 0.0829717 0.118047 -0.0715058 -0.0453934 -0.103095 -0.181425 -0.0453821 -0.169312 0.00435609 -0.0596339 0.0273572 -0.0323887 0.0493315 -0.0849874 -0.0217141 -0.086264 -0.0136642 -0.168806 -0.0318206 -0.111115
34 0.382566 0.0553302 -0.178847 0.406661 0.24574 -0.380439 -0.081349 0.538677 0.195981 -0.235187 -0.223096 0.648274 0.280676 0.272672 0.00719072 0.75427 -0.538423 0.41098 0.420755 -0.492122 0.615632 0.981249 -0.385862 -0.273827 0.295509 0.334645 0.118871 0.119043 -0.465729 -0.0765773 0.141109 -0.299643 -0.0941191 -0.071467 -0.0300936 0.0195333 -0.223505 0.0815012 -0.123535 0.226169 0.152828 -0.171646 0.0964554 -0.100424 0.115532 -0.0578416 0.066832 -0.161142 0.0441384 0.0637753 0.0282675 0.18411 0.15454 0.0520015 -0.00370141 0.0793902 -0.018734 -0.0417946 -0.0642948 -0.0630455 -0.150039 -0.00733437 -0.0273226 -0.133986 0.0235079 -0.0168257 -0.0916649 -0.0698204 0.174196 -0.0344419 -0.00648905 -0.191113 -0.0275186 -0.0854734 0.214662 -0.045859 0.0810258 0.0156737 -0.0454172 -0.0737918 -0.0635745 -0.0250064 0.0621598 -0.110296 -0.145416 0.126348 -0.0415069 -0.128113 -0.0312223 -0.0258691 -0.000496859 -0.00820781 0.301667 0.0933501 -0.104838 0.285415 0.0117931 -0.173615 0.239957 0.137258 -0.140037 -0.187392 -0.0183642 -0.194359 0.0806026 -0.0354072 0.0110459 -0.0480585 0.132111 0.130311 -0.0835812 0.0274766 -0.0613942 -0.163596 -0.143678 -0.0970764 -0.0737405 -0.0774263 0.0321964 -0.0337972 0.042808 -0.0417653 0.00819014 -0.023153 0.0078902 -0.110264 -0.0713257 -0.0896667
15 0.444256 0.00371613 -0.117668 0.410577 0.315997 -0.338368 -0.174536 0.54743 0.253716 -0.181725 -0.342931 0.849611 0.293281 0.26111 0.0234324 0.750289 -0.674136 0.449301 0.548981 -0.491358 0.622498 0.941918 -0.323392 -0.228506 0.256752 0.319228 0.123715 0.0998722 -0.532794 -0.0927251 0.180845 -0.403766 -0.0743677 -0.127242 0.104759 0.0076642 -0.385538 0.165352 -0.195147 0.314121 0.151352 -0.225173 0.12942 -0.0564223 0.184342 -0.16779 0.114072 -0.304986 0.0519077 0.043079 0.0384694 0.296028 0.226014 0.144581 -0.0242406 0.178994 0.0197328 -0.111664 -0.123758 -0.145673 -0.25665 -0.00944072 0.0244358 -0.305568 0.109104 0.0217991 -0.135257 -0.12273 0.209888 -0.0892919 -0.0187159 -0.226934 -0.0360271 -0.0982675 0.285278 -0.0456986 0.200586 -0.00638151 -0.0808399 -0.0260896 -0.0993135 -0.0767692 0.154213 -0.266025 -0.311772 0.135896 -0.0978804 -0.268039 -0.0838744 -0.0590831 0.0488508 -0.0244703 0.248505 0.041995 -0.0148624 0.233621 -0.0106705 -0.0393756 0.0571164 0.069701 -0.134083 -0.102506 0.0189396 -0.13315 0.101665 -0.0951864 0.0168556 -0.00176791 0.0317717 0.0284209 -0.0301041 -0.0475592 -0.0401398 -0.106018 -0.100869 -0.115199 -0.0420438 0.00623354 0.0853009 0.0335474 0.0468364 -0.0290414 -0.00359626 -0.0553742 0.124098 -0.0169801 0.0461827 0.0559867
33 0.431581 0.00019751 -0.158483 0.493358 0.341699 -0.330655 -0.146607 0.611066 0.237513 -0.181377 -0.275886 0.682292 0.236266 0.222485 0.0318247 0.691931 -0.584422 0.398822 0.469846 -0.456396 0.557335 0.915975 -0.298927 -0.260936 0.266949 0.315447 0.12594 0.0575406 -0.36327 -0.0644302 0.139011 -0.32373 -0.0626848 -0.102265 0.0439561 -0.015968 -0.292657 0.194179 -0.127204 0.259148 0.10888 -0.150872 0.120679 -0.0788417 0.137094 -0.109023 0.114427 -0.262797 0.0352246 0.0376198 0.0204088 0.237327 0.172189 0.115042 -0.0355346 0.150629 0.0331211 -0.0979287 -0.0686523 -0.0521178 -0.235853 0.0165451 0.0498618 -0.235713 0.060257 0.0350989 -0.128868 -0.141925 0.186331 -0.089378 0.0099275 -0.227082 -0.0120749 -0.068465 0.156814 -0.0118154 0.124299 -0.022734 -0.069755 -0.0376896 -0.0531173 -0.0647777 0.0906427 -0.170122 -0.226575 0.115776 -0.0494978 -0.220234 0.0244124 -0.0556185 0.0523239 0.0214726 0.128063 0.00575302 0.0232338 0.0677532 -0.0572322 0.0325691 0.0223935 0.0340542 -0.107644 -0.0496206 0.00622011 -0.0958366 0.0915426 -0.0484693 0.00705031 -0.0532185 0.0739665 0.0688363 -0.0720526 -0.00543716 -0.0597154 -0.165865 -0.142127 -0.15501 -0.0506175 -0.067104 0.087111 0.0369393 0.0526835 -0.0357682 -0.0151078 -0.078611 0.00639372 -0.128504 -0.0893455 -0.085576
31 0.443317 -0.050774 -0.113376 0.417385 0.300493 -0.259553 -0.163684 0.460727 0.193868 -0.144221 -0.299934 0.733773 0.254177 0.223644 0.0108572 0.821278 -0.608394 0.39494 0.551967 -0.46959 0.542239 0.883094 -0.355874 -0.186841 0.0988344 0.186536 0.122768 0.0917597 -0.405101 -0.0721097 0.107962 -0.353412 -0.0744188 -0.106917 0.0664393 0.0250843 -0.182573 0.106892 -0.154713 0.215087 0.0786813 -0.0769061 0.0917552 -0.0327269 0.143907 -0.170189 0.101783 -0.214738 0.042316 0.111575 0.0961911 0.202098 0.185021 0.154752 0.0393552 0.11726 0.0503127 -0.0936586 -0.093129 -0.139175 -0.267149 -0.0986072 -0.0393567 -0.306103 0.0395 -0.0381035 -0.22588 -0.121826 0.173285 -0.070394 -0.0294909 -0.158646 -0.0521994 0.0284747 -0.0740742 0.0398034 0.0771096 -0.0953216 -0.122265 -0.10028 0.0988753 0.0515582 0.10586 -0.0675729 -0.157753 0.0809871 -0.00911629 -0.0602119 -0.11097 -0.0225391 0.0655267 -0.0149955 0.377577 0.112753 -0.113214 0.384771 0.0071732 -0.160208 0.187125 0.0605013 -0.168919 -0.143177 0.0292049 -0.212969 0.0386017 -0.125954 0.0288157 -0.0769429 0.156401 0.0814739 -0.0437941 0.0964184 -0.0854487 -0.272327 -0.252379 -0.123256 -0.0936353 -0.124247 0.0681848 0.0105843 -0.0139235 -0.222997 0.061522 -0.0529883 -0.0311264 -0.18291 -0.158415 -0.127718
2 0.507559 0.025747 -0.252431 0.562525 0.186327 -0.447505 -0.134789 0.692585 0.24323 -0.306841 -0.291588 0.70388 0.311748 0.295421 -0.0459832 0.855426 -0.58222 0.453077 0.323961 -0.522775 0.631663 0.982812 -0.46202 -0.360914 0.252362 0.288693 0.0418569 0.105863 -0.335987 -0.0432292 0.0699045 -0.185003 -0.0915659 0.0261484 -0.0949041 0.0288584 -0.256879 0.0349416 -0.0460353 0.188876 0.186292 -0.21266 0.135463 -0.177372 0.0982356 -0.00615116 0.0293466 -0.325733 0.0170182 0.0661682 -0.0126599 0.310473 0.311888 0.0556261 -0.0405091 0.119257 0.00179116 -0.13851 -0.042949 -0.0885288 -0.110123 0.0919418 0.0266373 -0.0350511 0.0600244 -0.0114652 0.0220017 -0.107467 0.235319 -0.0780335 0.0408884 -0.271862 0.0343316 -0.196167 0.43409 -0.105677 0.190533 0.145078 0.0711092 0.0479266 -0.273775 -0.15647 -0.00452888 -0.146177 -0.0928019 0.101022 -0.0656075 -0.22656 -0.0754272 -0.0183192 -0.111447 -0.028337 0.26822 0.101454 -0.0534013 0.206216 0.0131084 -0.175591 0.159743 0.196006 -0.058783 -0.181657 -0.0244166 -0.141139 0.207069 0.00376084 -0.0792477 -0.105499 0.249317 0.20069 -0.151255 0.00896986 -0.172905 -0.383231 -0.240697 -0.178857 -0.0609422 -0.255567 0.00295221 -0.133834 0.0299859 -0.161826 -0.010379 -0.0432819 -0.0676288 -0.148469 -0.0987513 -0.127377
22 0.43131 0.019549 -0.214992 0.538608 0.297857 -0.354382 -0.112276 0.606508 0.232409 -0.296283 -0.276177 0.737938 0.268961 0.243989 -0.0117668 0.856854 -0.665297 0.463799 0.434445 -0.535401 0.624167 1.08846 -0.446505 -0.394439 0.196981 0.228251 0.0961298 0.0904561 -0.293075 -0.0479806 0.0532481 -0.246066 -0.102022 -0.0242663 -0.0641852 0.0236792 -0.263335 0.147312 -0.0791377 0.167224 0.0828193 -0.136254 0.18168 -0.191343 0.129971 -0.105312 0.0359972 -0.312155 -0.0106852 0.105493 0.0155172 0.28414 0.237534 0.0274335 -0.00564913 0.104411 0.0946994 -0.238341 0.00667743 -0.0345422 -0.195371 0.0843217 0.0637305 -0.112219 0.0920559 0.012823 -0.0725857 -0.22911 0.254703 -0.127997 0.0644342 -0.310475 0.0740265 -0.0921325 0.161249 -0.000452042 0.110117 0.0256925 0.008547 0.031682 -0.113306 -0.143587 -0.0209359 -0.0962691 -0.0494689 -0.00509816 -0.0235236 -0.179783 -0.0677812 -0.0235007 -0.0170579 -0.0327212 0.406761 0.143407 -0.0947222 0.281404 -0.00719617 -0.175516 0.148228 0.167859 -0.121406 -0.168372 0.0203488 -0.199829 0.179624 0.00957285 -0.0366921 -0.110289 0.263859 0.206773 -0.106845 0.0620687 -0.20653 -0.460053 -0.267351 -0.246713 -0.0413899 -0.264253 0.0127675 -0.110282 0.022687 -0.332129 0.0241665 -0.0947578 -0.182453 -0.370232 -0.239177 -0.308295
1 0.429747 0.062773 -0.212229 0.444028 0.138293 -0.360386 -0.0796359 0.540489 0.192764 -0.324798 -0.21101 0.736108 0.300795 0.298689 -0.0341913 0.823375 -0.63804 0.46016 0.321158 -0.488988 0.578726 0.906082 -0.443514 -0.365707 0.164096 0.191226 0.0423122 0.126696 -0.349971 -0.0894075 0.0456769 -0.0866165 -0.096242 0.037823 -0.0664112 0.0502105 -0.265351 0.016394 -0.0372815 0.0452601 0.00979769 -0.110347 0.0893262 -0.0682657 0.0595799 -0.0401886 -0.0410322 -0.172532 0.0147252 0.028002 -0.0264643 0.183881 0.16286 -0.0489237 -0.0358752 0.0530191 0.0360275 -0.14699 -0.0148809 -0.0336102 -0.0620958 0.0673386 0.0460503 -0.0644193 0.152364 0.047436 0.0519788 -0.0947254 0.180827 -0.0591035 0.0283266 -0.191399 0.0624589 -0.0922388 0.346665 -0.0700651 0.154265 0.123625 0.00838992 0.0646545 -0.199059 -0.135919 0.00682677 -0.161405 -0.0705773 -0.0229035 -0.0795958 -0.181307 -0.0712257 -0.0578233 -0.047079 -0.0553638 0.26253 0.0713248 -0.0021698 0.18199 0.018901 -0.102354 -0.00958054 0.0861658 -0.0633729 -0.104262 0.02086 -0.115106 0.179286 0.03641 -0.062201 -0.0446843 0.276808 0.218698 -0.104018 0.000237357 -0.21949 -0.498708 -0.31133 -0.256805 -0.0637258 -0.251294 -0.0206874 -0.181277 0.0226702 -0.345128 0.0153248 -0.0629073 -0.0558633 -0.273813 -0.10312 -0.145151
7 0.501027 0.182141 -0.239009 0.444897 0.309109 -0.492729 -0.0694488 0.693939 0.297146 -0.345107 -0.214461 0.902126 0.33853 0.347075 0.0556276 0.813865 -0.70624 0.467382 0.340133 -0.501176 0.711215 1.03454 -0.354388 -0.414574 0.262034 0.289766 -0.00854182 0.0576575 -0.350119 -0.0651227 0.164482 -0.0987609 0.00121972 -0.00631682 0.00866717 -0.00877263 -0.400091 0.147405 -0.0852174 -0.0568081 -0.0540883 -0.117499 0.0728577 -0.0270086 0.0737166 -0.0275844 -0.0114492 -0.102597 0.0287947 -0.0992482 -0.105988 0.124593 0.0657414 -0.0558991 -0.132049 0.0476474 0.0774122 -0.247144 -0.0371695 0.0259541 -0.129557 0.180446 0.161758 -0.152822 0.286142 0.164872 0.0881487 -0.179134 0.298814 -0.0671815 0.088117 -0.368358 0.169327 -0.183857 0.49447 -0.109656 0.274952 0.1696 -0.0517935 0.164796 -0.375786 -0.32052 0.0870334 -0.346593 -0.18657 -0.0769152 -0.127643 -0.363016 -0.0123041 -0.176341 -0.0372141 -0.0657803 0.445157 0.0912339 0.0311487 0.298027 -0.0378385 -0.0516536 -0.0797325 0.204264 -0.152067 -0.123635 -0.0015159 -0.16918 0.286796 0.130466 -0.00352391 0.0576555 0.224383 0.221824 -0.125724 -0.125472 -0.295589 -0.486009 -0.220063 -0.438518 -0.020296 -0.276328 0.0271103 -0.179402 0.139036 -0.507611 -0.0384262 -0.212673 -0.047685 -0.558153 -0.179221 -0.297716
17 0.441209 0.223877 -0.223623 0.358113 0.222267 -0.464199 -0.0145305 0.613476 0.295482 -0.479128 -0.190871 1.09591 0.387982 0.395909 0.0262993 0.919774 -0.849687 0.536732 0.320246 -0.531671 0.747938 1.08393 -0.397511 -0.47228 0.260026 0.3007 -0.00558587 0.12335 -0.508779 -0.0895883 0.146494 -0.0761493 -0.0749486 0.0245502 -0.00493767 0.0313759 -0.458318 0.119782 -0.0839274 -0.175111 -0.154143 -0.155689 0.131376 -0.0698162 0.117851 -0.0861823 -0.00785874 -0.15332 0.0265729 -0.0734449 -0.125525 0.243147 0.0687961 -0.105999 -0.143402 0.0724688 0.088483 -0.292119 -0.0415082 -0.00617301 -0.134377 0.198751 0.174701 -0.217774 0.380766 0.202388 0.149428 -0.149943 0.316645 -0.101614 0.0677699 -0.399419 0.150429 -0.132746 0.548971 -0.0912535 0.194993 0.159114 -0.102546 0.174248 -0.305937 -0.310242 0.0805624 -0.387471 -0.187722 -0.186523 -0.126544 -0.324149 0.0768166 -0.251605 0.00922048 -0.0695023 0.502604 0.0830055 0.0757523 0.301583 -0.0492765 -0.0436836 -0.139114 0.185788 -0.178318 -0.147584 0.0771121 -0.198306 0.33808 0.127879 -0.0549164 0.0280676 0.355742 0.38011 -0.167874 -0.0918508 -0.390266 -0.779028 -0.359032 -0.521895 -0.0328402 -0.319255 -0.00590418 -0.263492 0.126964 -0.602869 -0.0143565 -0.215672 -0.0226904 -0.52624 -0.0760112 -0.231289
6 0.374018 0.206038 -0.233576 0.401101 0.267063 -0.475764 -0.0233517 0.653815 0.296761 -0.504645 -0.190522 1.07041 0.360683 0.3565 0.0186932 0.873919 -0.825515 0.527948 0.299182 -0.5067 0.728899 1.11378 -0.381248 -0.503911 0.278605 0.322714 0.026628 0.130622 -0.494525 -0.0843361 0.118062 -0.11179 -0.123247 0.0381519 -0.0326581 0.0258801 -0.457641 0.160602 -0.0699041 -0.16305 -0.14925 -0.199062 0.220059 -0.167998 0.152226 -0.118086 0.00755337 -0.304825 0.0108795 -0.00862802 -0.114328 0.382882 0.173069 -0.117238 -0.123688 0.131182 0.118043 -0.386322 -0.0155577 -0.0250828 -0.202863 0.234278 0.182702 -0.20268 0.360689 0.176236 0.126537 -0.229984 0.349378 -0.164614 0.0878524 -0.480411 0.136973 -0.145181 0.509681 -0.0536919 0.118578 0.126351 -0.0653041 0.179631 -0.239248 -0.309391 0.0138198 -0.349068 -0.158735 -0.174225 -0.09682 -0.323149 0.133399 -0.240092 0.00715652 -0.0549438 0.457713 0.0831128 0.083664 0.204188 -0.0493523 -0.0332219 -0.136298 0.18503 -0.139665 -0.139296 0.0921751 -0.177785 0.333148 0.138594 -0.0767959 0.00548406 0.337064 0.367484 -0.147588 -0.0730323 -0.340361 -0.72849 -0.312124 -0.43552 0.00334896 -0.250457 -0.00898443 -0.224766 0.106838 -0.472091 -0.0171472 -0.157832 -0.048145 -0.406408 -0.0397582 -0.190932
11 0.52277 0.175705 -0.251223 0.445054 0.252916 -0.495605 -0.0350246 0.690459 0.284499 -0.377554 -0.203911 0.885946 0.346959 0.364006 0.0275304 0.857424 -0.709795 0.494646 0.326271 -0.547713 0.729447 1.07855 -0.419175 -0.445829 0.304622 0.348786 0.0204543 0.101423 -0.424807 -0.078634 0.151748 -0.140896 -0.05601 -0.00159142 -0.0597981 0.0106124 -0.443504 0.14166 -0.0914326 0.0449421 0.0465518 -0.18989 0.133987 -0.118196 0.0971511 -0.0308913 -0.000114376 -0.216447 0.0204477 -0.039462 -0.0987829 0.230115 0.168067 -0.0473903 -0.116297 0.0685995 0.070158 -0.259354 -0.023849 0.0195237 -0.137963 0.191948 0.15884 -0.123227 0.274838 0.145719 0.100446 -0.183141 0.331822 -0.0822719 0.0851483 -0.387033 0.154717 -0.197355 0.548221 -0.11751 0.239486 0.174441 -0.0331163 0.143799 -0.368579 -0.304583 0.0447095 -0.300861 -0.116498 -0.104016 -0.111228 -0.30763 0.029382 -0.177834 -0.0479145 -0.0485047 0.395531 0.0810533 0.0368685 0.236894 -0.0452649 -0.0662316 -0.0582858 0.195215 -0.143309 -0.12782 0.00211939 -0.171859 0.287256 0.147381 -0.03799 0.0349814 0.250982 0.266212 -0.147747 -0.103133 -0.312743 -0.539649 -0.251436 -0.433042 -0.0313075 -0.28956 0.0131316 -0.206967 0.133285 -0.485923 -0.039667 -0.196244 -0.0512032 -0.51492 -0.152785 -0.278585
5 0.465398 0.168397 -0.24811 0.399096 0.182957 -0.477824 -0.0238106 0.647966 0.262134 -0.430522 -0.183892 0.929278 0.361015 0.360519 -0.00456432 0.887431 -0.724448 0.493042 0.264416 -0.521275 0.714577 1.04646 -0.418903 -0.444255 0.27884 0.336923 0.0169646 0.136756 -0.494016 -0.0661121 0.122112 -0.136379 -0.112074 0.0370161 -0.0802053 0.0375133 -0.419496 0.0973427 -0.0787251 -0.0213941 0.0139595 -0.223072 0.179321 -0.176574 0.133444 -0.0585339 0.0218872 -0.304955 0.0143929 0.0100204 -0.0911651 0.360749 0.225258 -0.0493939 -0.105143 0.101578 0.0720931 -0.287655 -0.0308252 -0.0399313 -0.146484 0.192992 0.12954 -0.140015 0.268854 0.116119 0.117968 -0.148914 0.329063 -0.114242 0.0643298 -0.393214 0.105601 -0.163685 0.47652 -0.0941768 0.135603 0.149834 -0.0390761 0.134533 -0.284882 -0.263587 0.012284 -0.257886 -0.071065 -0.146394 -0.0730646 -0.214954 0.0862955 -0.194871 -0.0501741 -0.0390758 0.378831 0.0761261 0.040873 0.222658 -0.0361193 -0.083845 -0.0495787 0.194842 -0.119379 -0.134897 0.0504079 -0.160686 0.271386 0.135589 -0.0735176 -6.10732e-06 0.329654 0.354354 -0.170852 -0.056935 -0.328172 -0.6579 -0.289006 -0.394252 -0.0239375 -0.284002 -0.0125691 -0.226981 0.0962036 -0.445129 -0.015964 -0.151953 -0.0440417 -0.372453 -0.0553911 -0.192409
4 0.571149 -0.0152527 -0.236502 0.512408 0.168523 -0.424478 -0.125389 0.683961 0.245397 -0.25056 -0.308948 0.691962 0.314403 0.288345 -0.0601902 0.915816 -0.560523 0.436953 0.316154 -0.566592 0.661324 1.02391 -0.499481 -0.352519 0.180483 0.262919 0.0166068 0.0947924 -0.265825 0.00826771 0.0490685 -0.207846 -0.0727537 0.0263615 -0.150521 0.0358902 -0.220318 0.0249393 -0.0548975 0.269523 0.298264 -0.218741 0.157959 -0.26049 0.104036 0.0172389 0.0596133 -0.403343 -0.0068334 0.126817 0.0101698 0.353667 0.389267 0.131761 -0.0198587 0.0969381 0.0204645 -0.164352 -0.0315889 -0.104082 -0.103549 0.0915098 0.0174018 -0.00454889 0.0238223 -0.0586445 0.00924485 -0.0863271 0.268315 -0.0661008 0.053519 -0.259404 0.0389741 -0.173751 0.247728 -0.0931697 0.123579 0.115 0.0653166 0.0428411 -0.231314 -0.121228 -0.0507369 0.00845584 0.102092 -0.0141918 0.0112032 -0.0507206 -0.0385448 -0.0282138 -0.142311 -0.00486789 0.266625 0.126435 -0.0903258 0.250114 -0.0112426 -0.213092 0.183398 0.221741 -0.0619717 -0.170339 -0.035856 -0.15663 0.173231 0.04033 -0.080433 -0.110672 0.266211 0.224926 -0.179969 0.0399786 -0.232816 -0.416797 -0.223252 -0.219173 -0.0530676 -0.329622 0.00624641 -0.143563 0.0290254 -0.26419 -0.00511919 -0.0967545 -0.126347 -0.241968 -0.15725 -0.220635
14 0.537001 -0.04558 -0.271089 0.74047 0.299982 -0.381204 -0.21603 0.763431 0.20805 -0.268483 -0.300001 0.670528 0.243011 0.215132 -0.0379927 0.754328 -0.591659 0.445236 0.40264 -0.452633 0.471851 0.85176 -0.387418 -0.318784 0.192635 0.169711 0.132574 0.104494 -0.298997 -0.109689 0.00856892 -0.214821 -0.138917 -0.00508002 -0.0289053 0.0239151 -0.279771 0.129349 -0.0621785 0.288029 0.0957233 -0.100214 0.111848 -0.0681611 0.111374 -0.140987 4.93076e-05 -0.384242 -0.0133131 0.0949431 0.0470453 0.270898 0.299954 0.0229273 0.0301894 0.14761 0.0790069 -0.145789 0.0086171 -0.0524236 -0.182404 0.0132576 0.0108366 -0.0952104 -0.000883972 -0.0161226 -0.124374 -0.234987 0.145181 -0.135688 0.0123933 -0.198735 0.00645252 -0.0721787 0.275768 -0.0330852 0.229561 0.073723 0.0755731 0.000895206 -0.165038 -0.112295 0.011127 -0.181935 -0.218755 0.196498 -0.106893 -0.294447 -0.251198 0.0965277 -0.0289575 -0.0498179 0.156661 0.0604329 -0.0512707 0.110467 0.0596124 -0.105183 0.082954 0.0392874 0.00159758 -0.0725302 0.0201495 -0.0669122 0.0824968 -0.049844 -0.0469923 -0.10373 0.203759 0.0921932 -0.0361279 0.0507952 -0.0788882 -0.326201 -0.264368 -0.0870795 -0.0445193 -0.202011 -0.0171235 -0.089194 -0.0627198 -0.21625 0.031521 0.0283273 -0.157072 -0.187924 -0.210832 -0.178801
13 0.462368 0.0812403 -0.328059 0.669681 0.186506 -0.465791 -0.109629 0.75987 0.214858 -0.432396 -0.214097 0.719201 0.307498 0.305094 -0.0463915 0.821781 -0.616445 0.494309 0.268786 -0.482909 0.57863 0.971244 -0.454509 -0.434855 0.351242 0.289287 0.11689 0.158985 -0.438563 -0.123294 0.0344168 -0.140397 -0.175203 0.0464629 -0.112173 0.040776 -0.322438 0.0765328 -0.0350749 0.184044 0.0824505 -0.180045 0.141004 -0.136855 0.106209 -0.0681195 -0.0504917 -0.32126 -0.00607437 0.06081 -0.0241955 0.268538 0.236448 -0.0984022 -0.0109649 0.103433 0.0440867 -0.151065 0.0245324 0.00378708 -0.0851857 0.0971195 0.0246231 0.00987074 0.0505871 0.0306007 0.0167473 -0.186195 0.162904 -0.104317 0.033544 -0.258528 0.0507944 -0.179653 0.626851 -0.114279 0.266902 0.190878 0.0973578 0.0309262 -0.349174 -0.231354 0.00589908 -0.308375 -0.262241 0.194041 -0.158145 -0.387098 -0.220925 0.0470247 -0.0626294 -0.07602 0.295746 0.0929059 -0.0692393 0.192395 0.071012 -0.186266 0.157544 0.169424 -0.0401721 -0.185742 0.00915154 -0.129999 0.186861 0.0217563 -0.0686557 -0.0917155 0.295902 0.248065 -0.106053 0.0114316 -0.159744 -0.470485 -0.281437 -0.166751 -0.0423939 -0.22294 -0.0755863 -0.205658 -0.0113257 -0.227886 0.0108257 0.0256761 -0.135559 -0.218493 -0.13937 -0.178399
3 0.392744 0.0215436 -0.231353 0.53361 0.149875 -0.343139 -0.158236 0.606397 0.228148 -0.350825 -0.291763 0.754594 0.300195 0.253359 -0.0706763 0.786314 -0.62784 0.456331 0.333281 -0.458184 0.576894 0.925131 -0.389108 -0.340358 0.296281 0.248326 0.112824 0.125617 -0.430531 -0.0537643 0.0125813 -0.252147 -0.15949 -0.0069124 -0.032933 0.046248 -0.301678 0.095327 -0.0859953 0.274161 0.0747238 -0.153788 0.113061 -0.148307 0.104279 -0.0725833 -0.00234895 -0.213267 -0.0257614 0.0417623 -0.00678739 0.193583 0.0888888 -0.0383049 -0.0103833 0.0530592 0.0344351 -0.0727615 0.00747681 -0.0462463 0.00656086 0.0603398 -0.00367004 -0.00321674 0.00792656 0.00790577 0.033644 -0.0457631 0.0415645 -0.0639142 0.0142884 -0.117281 0.0105998 -0.0810873 0.369389 -0.0573373 0.163488 0.0899962 0.0512886 0.0100559 -0.183683 -0.125483 0.0484558 -0.195636 -0.215945 0.110307 -0.0813143 -0.215345 -0.199194 0.0335 -0.0139913 -0.0660221 0.360741 0.119413 -0.118022 0.335341 0.0492413 -0.225482 0.207734 0.213309 -0.0739968 -0.226848 0.0466223 -0.154691 0.164504 -0.0642969 -0.0563633 -0.107573 0.219182 0.20553 -0.0923013 0.0298567 -0.137924 -0.357966 -0.139867 -0.0962093 -0.00206183 -0.157996 -0.0777587 -0.148657 -0.0505336 -0.152691 0.0329245 -0.00921758 -0.0953033 -0.117472 -0.0285433 -0.109017
18 0.452335 0.0409089 -0.220333 0.50654 0.27826 -0.366309 -0.0953197 0.599855 0.2237 -0.300251 -0.240316 0.734927 0.27774 0.267574 -0.000745648 0.839802 -0.647515 0.457368 0.411422 -0.524317 0.615417 1.04288 -0.445046 -0.380944 0.210406 0.246596 0.0939843 0.110743 -0.351827 -0.0715002 0.0773213 -0.234965 -0.102539 -0.0259916 -0.0620514 0.0293368 -0.28627 0.137709 -0.0901164 0.156192 0.0855596 -0.145949 0.164482 -0.154805 0.135031 -0.11163 0.0342547 -0.303546 0.00788412 0.101421 0.0184469 0.286677 0.238722 0.0290743 -0.0113252 0.106219 0.0864287 -0.215643 -0.0115579 -0.0399099 -0.210516 0.0643113 0.0559366 -0.143692 0.110964 0.0253366 -0.080013 -0.215671 0.263371 -0.113249 0.0506937 -0.308904 0.0655498 -0.113835 0.252303 -0.025818 0.156947 0.0465608 -0.0119522 0.0188878 -0.155865 -0.154387 0.00893775 -0.151636 -0.0953292 0.0163003 -0.0500074 -0.213232 -0.0964042 -0.0387875 -0.00995059 -0.0415494 0.440889 0.14235 -0.0898681 0.320095 -0.00533352 -0.185246 0.153412 0.169121 -0.142169 -0.171508 0.0118247 -0.211897 0.205063 0.00243675 -0.0279616 -0.0954612 0.276081 0.217233 -0.114675 0.0482162 -0.211966 -0.486093 -0.301659 -0.271446 -0.0613949 -0.265776 0.0222331 -0.121216 0.038268 -0.35401 0.0218053 -0.0988795 -0.14404 -0.384374 -0.23605 -0.290536
8 0.583426 0.0258132 -0.344795 0.736309 0.227448 -0.46194 -0.140662 0.796937 0.185317 -0.360924 -0.226661 0.667698 0.286155 0.269076 -0.0646116 0.826922 -0.566863 0.481539 0.284386 -0.471091 0.520008 0.909623 -0.468399 -0.380058 0.267676 0.224353 0.140701 0.163584 -0.443728 -0.128088 0.00383603 -0.216452 -0.197351 0.0244919 -0.129406 0.0523043 -0.314426 0.0989215 -0.078887 0.341453 0.185875 -0.167171 0.124065 -0.134491 0.117769 -0.111466 -0.0333129 -0.391299 -0.0288928 0.11632 0.0330821 0.304271 0.317811 -0.0257516 0.0434101 0.0972589 0.0799306 -0.150473 0.0341144 -0.0117512 -0.140102 0.048009 -0.00876516 -0.0182023 -0.0163757 -0.0215724 -0.0724874 -0.209561 0.166352 -0.113291 0.00423246 -0.207854 0.0193348 -0.0929551 0.327145 -0.0695279 0.176581 0.131291 0.079997 -0.00380115 -0.228867 -0.144748 -0.0211918 -0.155743 -0.102345 0.108923 -0.10187 -0.179718 -0.212245 0.0715132 -0.058401 -0.0603552 0.195082 0.0735408 -0.0968026 0.173401 0.0845525 -0.190338 0.15397 0.108513 -0.00892592 -0.105877 0.0235813 -0.0884779 0.0540382 0.0520527 -0.0452699 -0.0618078 0.281725 0.220895 -0.0674288 0.0537549 -0.14506 -0.430855 -0.242485 -0.127693 -0.0289727 -0.229859 -0.0887603 -0.185476 -0.0418034 -0.291611 0.0306672 0.0327677 -0.178628 -0.266997 -0.1893 -0.228081
9 0.516074 0.0400816 -0.184528 0.411538 0.222713 -0.371062 -0.110285 0.584722 0.198811 -0.207076 -0.218926 0.679504 0.268103 0.249918 -0.015594 0.668196 -0.52646 0.379118 0.336292 -0.426635 0.532819 0.781069 -0.302582 -0.233747 0.247902 0.297833 0.0997146 0.116275 -0.525551 -0.0885215 0.13047 -0.326451 -0.120367 -0.0615348 -0.0170742 0.0300798 -0.410663 0.140713 -0.162837 0.341989 0.212481 -0.228085 0.133219 -0.118757 0.160282 -0.122612 0.082713 -0.366149 0.0136133 0.0570469 0.00658251 0.335473 0.292075 0.106437 -0.0246664 0.142591 0.0468585 -0.15513 -0.0688894 -0.0960859 -0.207902 0.0562614 0.039354 -0.20412 0.106448 0.027844 -0.0563021 -0.117844 0.238796 -0.0939076 -0.00729578 -0.245024 -0.00791906 -0.102702 0.318404 -0.0788996 0.175621 0.0698405 -0.0411951 0.00561168 -0.18778 -0.126123 0.0828305 -0.200288 -0.152041 0.0157435 -0.0807019 -0.152739 -0.0376288 -0.0793839 -0.00615759 -0.0199764 0.17134 0.0227259 -0.00107776 0.168802 -0.00530952 -0.0544603 0.0168024 0.0852029 -0.0792668 -0.0580638 0.0291755 -0.0925056 0.0697801 0.0351315 -0.0159609 0.0269849 0.137005 0.152288 -0.074841 -0.0443897 -0.14348 -0.292126 -0.139168 -0.189675 -0.0260245 -0.122022 0.0138624 -0.0827507 0.0427168 -0.212999 -0.00636629 -0.0722656 0.0463832 -0.141134 0.00330264 -0.0308782
21 0.428815 -0.0192986 -0.115522 0.426243 0.295761 -0.326984 -0.18385 0.532861 0.255879 -0.164862 -0.355545 0.811579 0.28758 0.256129 0.01537 0.775418 -0.657491 0.433243 0.545088 -0.487451 0.619004 0.936433 -0.328021 -0.221488 0.217305 0.29298 0.103312 0.0765653 -0.428549 -0.0717878 0.160541 -0.356484 -0.0518718 -0.109394 0.107337 -0.0011792 -0.301653 0.128665 -0.160068 0.258105 0.117176 -0.182122 0.106628 -0.0394057 0.152699 -0.134922 0.113887 -0.273459 0.056211 0.0361624 0.0445492 0.263347 0.206625 0.154761 -0.0314433 0.173903 -0.000972102 -0.0749313 -0.121184 -0.150916 -0.227146 -0.0251328 0.0139283 -0.276936 0.0832474 0.00662346 -0.125256 -0.0850904 0.172756 -0.0738748 -0.0164228 -0.192407 -0.0422026 -0.0916577 0.243931 -0.0341903 0.2023 -0.00510818 -0.0670936 -0.0301355 -0.0830328 -0.0569982 0.143639 -0.231362 -0.309634 0.164544 -0.0783377 -0.260193 -0.0752813 -0.0480184 0.0365356 -0.0118558 0.207297 0.0363636 -0.000506487 0.191512 -0.0165074 -0.0239573 0.0499611 0.0573576 -0.115776 -0.0984913 0.0147461 -0.117997 0.109572 -0.118901 0.0021526 -0.0420682 0.0718524 0.0359918 -0.0590797 -0.0260603 -0.0521183 -0.158875 -0.163547 -0.123891 -0.0649261 -0.049897 0.0929109 0.0324725 0.0339074 -0.026954 0.00224348 -0.055126 0.0911809 -0.0195224 0.00276664 0.0292259
29 0.399852 -0.0238457 -0.168585 0.492139 0.224818 -0.221583 -0.0851929 0.407863 0.128414 -0.205931 -0.242721 0.577926 0.236305 0.225532 -0.0314447 0.704302 -0.602072 0.464682 0.46438 -0.52694 0.477251 0.912152 -0.461676 -0.353504 0.156281 0.153264 0.166199 0.145701 -0.287515 -0.153868 0.0164264 -0.211 -0.131481 -0.0319243 -0.0786746 0.0559193 -0.347823 0.128398 -0.0946909 0.368066 0.215134 -0.16041 0.168401 -0.0961667 0.119272 -0.157502 -0.0346823 -0.396556 -0.00152584 0.149344 0.0749155 0.25623 0.362591 0.0371409 0.0700846 0.139395 0.0659697 -0.14836 0.0210177 -0.0195625 -0.166442 -0.00689254 0.0288114 -0.0491689 0.048053 -0.0275006 -0.129175 -0.248755 0.182781 -0.111089 0.0219752 -0.162373 0.0352309 -0.0801838 0.232105 -0.0247481 0.219268 0.0498757 0.0801592 -0.00366277 -0.137925 -0.08582 -0.0348847 -0.117918 -0.0770949 0.0965903 -0.0945988 -0.243462 -0.174314 0.0742316 -0.0086072 -0.0489579 0.0257172 0.0244529 -0.00144297 -0.0417779 0.0387367 0.00272353 -0.0656276 -0.111853 0.0186194 0.060437 -0.01573 0.0145373 0.0400711 -0.0111857 -0.0359629 -0.0279797 0.104511 -0.0244664 0.032435 0.0181007 -0.0527181 -0.182315 -0.239163 -0.0915454 -0.0618894 -0.116164 0.0301707 -0.0535126 -0.0140143 -0.196809 0.0167108 0.0324144 -0.0637664 -0.150701 -0.163705 -0.100115
20 0.469741 -0.0545238 -0.156938 0.555655 0.340718 -0.323574 -0.194956 0.628885 0.263741 -0.205917 -0.361026 0.768237 0.235666 0.214859 0.0100164 0.774309 -0.648405 0.420352 0.48098 -0.491684 0.544351 0.914715 -0.351874 -0.302338 0.119476 0.192011 0.0555824 0.0388539 -0.161507 -0.0388694 0.0670644 -0.201994 -0.0265454 -0.0291314 0.0256277 -0.00323114 -0.256586 0.141732 -0.0578248 0.121191 0.0558237 -0.112536 0.155201 -0.097767 0.11672 -0.103699 0.0682832 -0.347523 0.0225901 0.0660396 0.0241253 0.284908 0.281483 0.114819 -0.0375096 0.174371 0.0741933 -0.2188 -0.053599 -0.106392 -0.235595 0.0480135 0.0823587 -0.197395 0.115731 0.0155237 -0.107616 -0.222247 0.253883 -0.134502 0.0610564 -0.288504 0.0455969 -0.126057 0.221539 -0.00981969 0.21713 0.0148281 0.0141475 0.0450471 -0.125093 -0.12389 0.0273595 -0.161009 -0.183355 0.109991 -0.0520515 -0.3273 -0.111273 -0.0205804 -0.021064 -0.0165766 0.287517 0.0955343 -0.00323064 0.165141 -0.0400098 -0.055552 0.0175236 0.0813703 -0.0870751 -0.0974809 0.0026932 -0.130651 0.255672 -0.0898516 -0.0648498 -0.162497 0.217319 0.0946481 -0.106776 0.0314661 -0.168138 -0.41004 -0.346758 -0.257327 -0.0818646 -0.27467 0.101558 -0.0340222 0.0179924 -0.266912 0.00473733 -0.109662 -0.107426 -0.267953 -0.225271 -0.206371
30 0.42758 0.000519078 -0.141795 0.471637 0.355384 -0.374181 -0.184466 0.706841 0.278716 -0.147369 -0.301717 0.663278 0.22569 0.213333 0.0409926 0.674878 -0.538835 0.354327 0.492329 -0.451406 0.624245 0.958194 -0.249573 -0.202329 0.347371 0.420273 0.106428 0.0172836 -0.378829 -0.0042294 0.17692 -0.359906 -0.0388643 -0.127161 0.0652989 -0.045859 -0.220304 0.177253 -0.119422 0.260796 0.112988 -0.158139 0.0753427 -0.0852723 0.126757 -0.0330262 0.184626 -0.170258 0.0483721 -0.0136554 -0.0158453 0.201308 0.0674394 0.145938 -0.0819645 0.124823 -0.0249269 0.00192545 -0.0994129 -0.0581827 -0.15635 0.0214111 0.0282784 -0.219079 0.0135262 0.0410838 -0.0709672 -0.00507994 0.117108 -0.0406889 -0.00596039 -0.168881 -0.0444768 -0.062626 0.148438 -0.0260687 0.0571663 -0.028803 -0.0992454 -0.0590547 -0.0376502 -0.0287336 0.125417 -0.138559 -0.248739 0.143764 -0.0122109 -0.16388 0.112591 -0.0899442 0.0472111 0.0604284 0.136314 -0.0023857 0.0204595 0.112933 -0.0945704 0.00726097 0.115934 0.121031 -0.148071 -0.132176 0.00426128 -0.141859 0.122137 -0.0673372 -0.00359444 -0.098549 0.0699015 0.125354 -0.144023 -0.00397207 -0.0562253 -0.14114 -0.0898395 -0.141422 -0.0524106 -0.0651012 0.0832507 0.0458186 0.062285 0.0880865 -0.0296759 -0.11109 0.0378552 -0.0508017 -0.0186854 -0.0520425
27 0.451429 -0.104443 -0.101538 0.559335 0.373445 -0.318319 -0.276296 0.682952 0.307145 -0.135316 -0.44131 0.771121 0.232101 0.205229 0.0238081 0.739616 -0.650436 0.409287 0.607015 -0.497325 0.594175 0.960651 -0.287698 -0.217146 0.253522 0.323613 0.107792 0.010201 -0.259626 -0.0241271 0.130205 -0.347922 -0.0163016 -0.115564 0.123603 -0.0352788 -0.248775 0.171202 -0.0987983 0.289189 0.102959 -0.154272 0.115476 -0.0664433 0.146593 -0.0928608 0.164513 -0.316791 0.05653 0.0253885 0.0315159 0.266195 0.202567 0.190799 -0.059538 0.208067 -0.00887549 -0.0393212 -0.115304 -0.134895 -0.194169 -0.0150105 0.0379037 -0.244504 0.0268783 0.00710569 -0.1207 -0.0765006 0.125128 -0.0797447 0.00598267 -0.171067 -0.0437985 -0.0999186 0.243465 -0.0194212 0.21792 -0.0204109 -0.0245257 -0.0364066 -0.0742176 -0.0444096 0.127316 -0.206619 -0.372152 0.27386 -0.0624182 -0.359408 -0.0683382 -0.00747969 0.037511 0.0269668 0.134639 0.0196265 0.0327566 0.0835325 -0.0700327 0.0235751 0.0729809 0.0623993 -0.102526 -0.11316 -0.00289514 -0.107571 0.189783 -0.192083 -0.0484914 -0.179446 0.0876891 0.0340203 -0.117843 0.00949866 -0.0332723 -0.162484 -0.218478 -0.123939 -0.0889917 -0.128427 0.127687 0.0652831 0.017312 0.0641831 -0.0169448 -0.0818235 0.0244449 0.0100201 -0.0611823 -0.0184612
12 0.422346 0.123841 -0.250798 0.493428 0.271655 -0.432657 -0.0529491 0.660334 0.246538 -0.351171 -0.200729 0.748462 0.29998 0.298513 -7.04325e-05 0.787202 -0.650099 0.480484 0.337781 -0.52289 0.685447 1.11342 -0.415774 -0.443537 0.371569 0.371066 0.11329 0.124126 -0.465577 -0.0766982 0.115162 -0.264785 -0.127114 -0.0280926 -0.0838594 0.0184193 -0.411935 0.187148 -0.111775 0.207921 0.142202 -0.24535 0.198292 -0.216738 0.158626 -0.0858173 0.029082 -0.351058 -0.00802294 0.0562108 -0.0406277 0.327448 0.234329 -0.032276 -0.0545388 0.10535 0.0864693 -0.259642 0.00678023 0.00388465 -0.176651 0.170581 0.102248 -0.08994 0.139849 0.0706478 0.00844896 -0.231048 0.298451 -0.126531 0.0699982 -0.389959 0.098335 -0.210761 0.522097 -0.0880619 0.221131 0.13729 0.0168048 0.0631894 -0.331964 -0.278864 0.0228621 -0.295466 -0.187652 0.0387037 -0.10854 -0.344294 -0.0796605 -0.0684996 -0.0196328 -0.0510706 0.425898 0.121169 -0.0699943 0.290874 -0.0134149 -0.166126 0.139039 0.240429 -0.145944 -0.197098 0.0102814 -0.20616 0.274799 0.0693781 -0.0415173 -0.0642283 0.266797 0.277987 -0.143564 -0.0349877 -0.244218 -0.487482 -0.2112 -0.30906 -0.0199274 -0.233662 -0.00675957 -0.16654 0.0797244 -0.324292 -0.0173743 -0.109433 -0.108025 -0.389154 -0.151913 -0.274343
10 0.560259 -0.0911546 -0.198122 0.601176 0.217913 -0.310648 -0.20272 0.616784 0.203914 -0.180683 -0.348856 0.640138 0.250994 0.210789 -0.0669715 0.746699 -0.557978 0.427335 0.403434 -0.490955 0.484891 0.815681 -0.409223 -0.280367 0.172218 0.209409 0.119307 0.108246 -0.309706 -0.079045 0.0156071 -0.298643 -0.128878 -0.0197854 -0.0550519 0.0401261 -0.371026 0.122499 -0.1087 0.483804 0.301839 -0.224911 0.166204 -0.15724 0.141741 -0.123465 0.0446718 -0.546085 -0.0162926 0.140776 0.0630659 0.397984 0.461736 0.152552 0.0310995 0.185485 0.0557251 -0.150676 -0.0271169 -0.122058 -0.158029 0.0337837 0.0206871 -0.070761 0.00419415 -0.0568146 -0.0865218 -0.174782 0.19253 -0.122912 0.019482 -0.18437 -0.00685378 -0.128383 0.283443 -0.0647919 0.244396 0.0859491 0.106702 0.0216075 -0.206664 -0.0984747 -0.00459083 -0.0982041 -0.0918981 0.117438 -0.0709887 -0.200528 -0.188777 0.0605999 -0.0690662 -0.0296201 0.0501304 0.0389052 -0.0213339 0.0625712 0.0284857 -0.0820366 0.0280158 0.0370065 0.036603 -0.0183589 0.000448453 -0.0116269 0.079702 -0.0417248 -0.0777793 -0.0820375 0.152004 0.0565189 -0.0503885 0.0174144 -0.104089 -0.254918 -0.195768 -0.0856474 -0.0305255 -0.200206 0.0121524 -0.0691777 -0.0468061 -0.161776 0.0103224 0.000220928 -0.078304 -0.073226 -0.100697 -0.0731343
16 0.470071 -0.0125444 -0.0983284 0.371641 0.280966 -0.323976 -0.177481 0.490214 0.23801 -0.134854 -0.335455 0.811749 0.293734 0.259523 0.0229906 0.739252 -0.604876 0.389425 0.520631 -0.450146 0.584945 0.834361 -0.298437 -0.166336 0.189171 0.290391 0.0910551 0.085804 -0.483934 -0.075949 0.189411 -0.367495 -0.0419131 -0.11349 0.115665 0.0105867 -0.310814 0.097357 -0.177572 0.247726 0.14401 -0.206013 0.104985 -0.0243753 0.170213 -0.146699 0.129081 -0.290233 0.0768699 0.037899 0.0489364 0.292514 0.242488 0.187848 -0.033835 0.185533 -0.00993024 -0.0850096 -0.160253 -0.188697 -0.263187 -0.044023 0.00704788 -0.339956 0.109476 0.00372462 -0.148919 -0.0780965 0.222669 -0.0699927 -0.0307854 -0.220381 -0.060811 -0.0992584 0.256916 -0.0467716 0.221096 -0.008155 -0.103046 -0.0436547 -0.089519 -0.0414292 0.181202 -0.253239 -0.323474 0.152026 -0.0838922 -0.244028 -0.0503625 -0.0886335 0.0428692 -0.00817196 0.235925 0.0345585 0.00689652 0.243958 -0.024901 -0.0248762 0.0455207 0.0516909 -0.136275 -0.0925215 0.0159877 -0.127762 0.103319 -0.125425 0.0108979 -0.00942306 0.0651423 0.0338689 -0.0612226 -0.0360304 -0.0575015 -0.15804 -0.169918 -0.142442 -0.0765138 -0.0322052 0.114788 0.0519651 0.05173 -0.0409114 0.00125803 -0.067528 0.147641 -0.000182134 0.040721 0.0753965
19 0.385285 -0.00890942 -0.0845052 0.34091 0.276584 -0.285622 -0.163412 0.43197 0.220944 -0.164742 -0.313799 0.801412 0.27574 0.237968 0.0187395 0.73717 -0.630559 0.402411 0.525834 -0.4348 0.560925 0.838679 -0.287934 -0.172915 0.182713 0.26125 0.112762 0.100692 -0.524505 -0.0877699 0.164864 -0.384205 -0.0752825 -0.121677 0.124857 0.0180878 -0.300026 0.114177 -0.176763 0.215882 0.0787207 -0.172657 0.0974651 -0.013593 0.172655 -0.175014 0.113086 -0.24485 0.0632124 0.0413418 0.0552405 0.264031 0.174435 0.14314 -0.016847 0.16789 0.0100133 -0.086294 -0.134375 -0.164954 -0.261382 -0.0454918 0.000904907 -0.344162 0.109508 0.0175684 -0.157235 -0.0931944 0.190422 -0.0788343 -0.0341205 -0.204672 -0.0615987 -0.0443968 0.194758 -0.0177261 0.160154 -0.0396657 -0.116785 -0.0534788 -0.0193606 -0.0302289 0.168347 -0.243402 -0.320872 0.129432 -0.0847915 -0.224897 -0.0635641 -0.0721591 0.0745739 -0.0200308 0.290549 0.0547303 -0.0256033 0.286275 -0.00184559 -0.0592515 0.0750736 0.0599493 -0.152375 -0.121347 0.0421959 -0.156863 0.079282 -0.119612 0.0245287 -0.00881901 0.0771578 0.0537244 -0.0384417 -0.0144852 -0.0502242 -0.179123 -0.164584 -0.118838 -0.0590683 -0.0104243 0.0807459 0.0271024 0.0278363 -0.0678908 0.019552 -0.0484088 0.118187 -0.0179553 0.0341996 0.0555457
23 0.483844 -0.0321902 -0.112014 0.436356 0.306897 -0.335527 -0.210863 0.545769 0.2573 -0.164409 -0.379678 0.866218 0.30414 0.25524 0.00646688 0.802466 -0.6654 0.432605 0.563525 -0.48428 0.59714 0.888055 -0.325956 -0.184843 0.174176 0.268018 0.101398 0.0954715 -0.480004 -0.0763528 0.160879 -0.378551 -0.0587804 -0.111986 0.115636 0.0151421 -0.316025 0.110579 -0.178948 0.275757 0.1183 -0.178358 0.0993759 -0.0188777 0.157762 -0.158145 0.109655 -0.283397 0.0563245 0.0503617 0.0595542 0.275713 0.231781 0.170734 -0.016657 0.1791 0.00627213 -0.0874907 -0.144352 -0.188973 -0.24003 -0.0464275 -0.00251011 -0.311985 0.0948388 -0.00270422 -0.146396 -0.0852192 0.195756 -0.0779418 -0.0266917 -0.203329 -0.0552306 -0.0744092 0.210253 -0.0343263 0.199719 -0.0152698 -0.0856259 -0.0332928 -0.0617152 -0.0318238 0.157736 -0.219122 -0.293161 0.142159 -0.0744117 -0.221136 -0.0796481 -0.0603107 0.0375794 -0.015414 0.23482 0.0498285 -0.0158528 0.252625 -0.00442301 -0.0490526 0.0553248 0.0564975 -0.118025 -0.0971852 0.0214586 -0.124694 0.0773725 -0.125318 0.0138929 -0.0168948 0.0645503 0.0164621 -0.043581 -0.0213603 -0.0447453 -0.137847 -0.148965 -0.097356 -0.0589694 -0.0317169 0.0966132 0.0418901 0.0236468 -0.0407999 0.0160436 -0.045433 0.119065 0.0163112 0.0348132 0.0674312
